digraph Tree {
node [shape=box] ;
0 [label="X[1] <= 68.5\nentropy = 1.0\nsamples = 39\nvalue = [19.5, 19.5]"] ;
1 [label="X[1] <= 39.5\nentropy = 0.9808\nsamples = 32\nvalue = [19.5, 14.04]"] ;
0 -> 1 [labeldistance=2.5, labelangle=45, headlabel="True"] ;
2 [label="X[1] <= 29.5\nentropy = 0.7579\nsamples = 12\nvalue = [11.1429, 3.12]"] ;
1 -> 2 ;
3 [label="entropy = 0.9945\nsamples = 5\nvalue = [2.7857, 2.34]"] ;
2 -> 3 ;
4 [label="entropy = 0.4208\nsamples = 7\nvalue = [8.3571, 0.78]"] ;
2 -> 4 ;
5 [label="X[1] <= 42.5\nentropy = 0.9872\nsamples = 20\nvalue = [8.3571, 10.92]"] ;
1 -> 5 ;
6 [label="entropy = 0.7769\nsamples = 7\nvalue = [1.3929, 4.68]"] ;
5 -> 6 ;
7 [label="X[4] <= 0.5\nentropy = 0.9978\nsamples = 13\nvalue = [6.9643, 6.24]"] ;
5 -> 7 ;
8 [label="entropy = 0.9418\nsamples = 8\nvalue = [5.5714, 3.12]"] ;
7 -> 8 ;
9 [label="entropy = 0.8916\nsamples = 5\nvalue = [1.3929, 3.12]"] ;
7 -> 9 ;
10 [label="entropy = 0.0\nsamples = 7\nvalue = [0.0, 5.46]"] ;
0 -> 10 [labeldistance=2.5, labelangle=-45, headlabel="False"] ;
}