digraph Tree {
node [shape=box] ;
0 [label="X[1] <= 39.5\ngini = 0.4734\nsamples = 39\nvalue = [15, 24]"] ;
1 [label="X[3] <= 2.0\ngini = 0.2975\nsamples = 11\nvalue = [2, 9]"] ;
0 -> 1 [labeldistance=2.5, labelangle=45, headlabel="True"] ;
2 [label="gini = 0.0\nsamples = 7\nvalue = [0, 7]"] ;
1 -> 2 ;
3 [label="X[1] <= 31.5\ngini = 0.5\nsamples = 4\nvalue = [2, 2]"] ;
1 -> 3 ;
4 [label="gini = 0.0\nsamples = 2\nvalue = [2, 0]"] ;
3 -> 4 ;
5 [label="gini = 0.0\nsamples = 2\nvalue = [0, 2]"] ;
3 -> 5 ;
6 [label="X[3] <= 0.5\ngini = 0.4974\nsamples = 28\nvalue = [13, 15]"] ;
0 -> 6 [labeldistance=2.5, labelangle=-45, headlabel="False"] ;
7 [label="X[1] <= 57.0\ngini = 0.2449\nsamples = 7\nvalue = [1, 6]"] ;
6 -> 7 ;
8 [label="gini = 0.0\nsamples = 1\nvalue = [1, 0]"] ;
7 -> 8 ;
9 [label="gini = 0.0\nsamples = 6\nvalue = [0, 6]"] ;
7 -> 9 ;
10 [label="X[5] <= 0.5\ngini = 0.4898\nsamples = 21\nvalue = [12, 9]"] ;
6 -> 10 ;
11 [label="X[1] <= 63.5\ngini = 0.48\nsamples = 10\nvalue = [4, 6]"] ;
10 -> 11 ;
12 [label="X[1] <= 59.0\ngini = 0.5\nsamples = 8\nvalue = [4, 4]"] ;
11 -> 12 ;
13 [label="X[2] <= 0.5\ngini = 0.4898\nsamples = 7\nvalue = [3, 4]"] ;
12 -> 13 ;
14 [label="gini = 0.0\nsamples = 1\nvalue = [1, 0]"] ;
13 -> 14 ;
15 [label="X[1] <= 41.0\ngini = 0.4444\nsamples = 6\nvalue = [2, 4]"] ;
13 -> 15 ;
16 [label="X[4] <= 0.5\ngini = 0.4444\nsamples = 3\nvalue = [2, 1]"] ;
15 -> 16 ;
17 [label="gini = 0.0\nsamples = 2\nvalue = [2, 0]"] ;
16 -> 17 ;
18 [label="gini = 0.0\nsamples = 1\nvalue = [0, 1]"] ;
16 -> 18 ;
19 [label="gini = 0.0\nsamples = 3\nvalue = [0, 3]"] ;
15 -> 19 ;
20 [label="gini = 0.0\nsamples = 1\nvalue = [1, 0]"] ;
12 -> 20 ;
21 [label="gini = 0.0\nsamples = 2\nvalue = [0, 2]"] ;
11 -> 21 ;
22 [label="X[1] <= 42.5\ngini = 0.3967\nsamples = 11\nvalue = [8, 3]"] ;
10 -> 22 ;
23 [label="X[0] <= 0.5\ngini = 0.4444\nsamples = 3\nvalue = [1, 2]"] ;
22 -> 23 ;
24 [label="gini = 0.0\nsamples = 2\nvalue = [0, 2]"] ;
23 -> 24 ;
25 [label="gini = 0.0\nsamples = 1\nvalue = [1, 0]"] ;
23 -> 25 ;
26 [label="X[1] <= 69.5\ngini = 0.2188\nsamples = 8\nvalue = [7, 1]"] ;
22 -> 26 ;
27 [label="gini = 0.0\nsamples = 5\nvalue = [5, 0]"] ;
26 -> 27 ;
28 [label="X[6] <= 0.5\ngini = 0.4444\nsamples = 3\nvalue = [2, 1]"] ;
26 -> 28 ;
29 [label="X[2] <= 0.5\ngini = 0.5\nsamples = 2\nvalue = [1, 1]"] ;
28 -> 29 ;
30 [label="gini = 0.0\nsamples = 1\nvalue = [1, 0]"] ;
29 -> 30 ;
31 [label="gini = 0.0\nsamples = 1\nvalue = [0, 1]"] ;
29 -> 31 ;
32 [label="gini = 0.0\nsamples = 1\nvalue = [1, 0]"] ;
28 -> 32 ;
}