digraph Tree {
node [shape=box] ;
0 [label="X[1] <= 32.0\nentropy = 1.0\nsamples = 39\nvalue = [19.5, 19.5]"] ;
1 [label="entropy = 0.7425\nsamples = 7\nvalue = [1.3, 4.875]"] ;
0 -> 1 [labeldistance=2.5, labelangle=45, headlabel="True"] ;
2 [label="X[3] <= 0.5\nentropy = 0.9914\nsamples = 32\nvalue = [18.2, 14.625]"] ;
0 -> 2 [labeldistance=2.5, labelangle=-45, headlabel="False"] ;
3 [label="entropy = 0.799\nsamples = 6\nvalue = [1.3, 4.0625]"] ;
2 -> 3 ;
4 [label="X[3] <= 1.5\nentropy = 0.9612\nsamples = 26\nvalue = [16.9, 10.5625]"] ;
2 -> 4 ;
5 [label="X[1] <= 50.5\nentropy = 0.9119\nsamples = 16\nvalue = [11.7, 5.6875]"] ;
4 -> 5 ;
6 [label="entropy = 0.9992\nsamples = 5\nvalue = [2.6, 2.4375]"] ;
5 -> 6 ;
7 [label="X[1] <= 66.5\nentropy = 0.8315\nsamples = 11\nvalue = [9.1, 3.25]"] ;
5 -> 7 ;
8 [label="entropy = 0.5714\nsamples = 5\nvalue = [5.2, 0.8125]"] ;
7 -> 8 ;
9 [label="entropy = 0.9612\nsamples = 6\nvalue = [3.9, 2.4375]"] ;
7 -> 9 ;
10 [label="entropy = 0.9992\nsamples = 10\nvalue = [5.2, 4.875]"] ;
4 -> 10 ;
}