digraph Tree {
node [shape=box] ;
0 [label="X[0] <= 51.0\ngini = 0.3599\nsamples = 51\nvalue = [39, 12]"] ;
1 [label="X[2] <= 0.5\ngini = 0.3432\nsamples = 50\nvalue = [39, 11]"] ;
0 -> 1 [labeldistance=2.5, labelangle=45, headlabel="True"] ;
2 [label="X[5] <= 0.5\ngini = 0.1049\nsamples = 18\nvalue = [17, 1]"] ;
1 -> 2 ;
3 [label="gini = 0.0\nsamples = 17\nvalue = [17, 0]"] ;
2 -> 3 ;
4 [label="gini = 0.0\nsamples = 1\nvalue = [0, 1]"] ;
2 -> 4 ;
5 [label="X[1] <= 70.0\ngini = 0.4297\nsamples = 32\nvalue = [22, 10]"] ;
1 -> 5 ;
6 [label="X[1] <= 59.0\ngini = 0.4121\nsamples = 31\nvalue = [22, 9]"] ;
5 -> 6 ;
7 [label="X[0] <= 0.5\ngini = 0.4444\nsamples = 27\nvalue = [18, 9]"] ;
6 -> 7 ;
8 [label="X[1] <= 25.0\ngini = 0.375\nsamples = 16\nvalue = [12, 4]"] ;
7 -> 8 ;
9 [label="gini = 0.0\nsamples = 10\nvalue = [10, 0]"] ;
8 -> 9 ;
10 [label="X[1] <= 39.5\ngini = 0.4444\nsamples = 6\nvalue = [2, 4]"] ;
8 -> 10 ;
11 [label="gini = 0.0\nsamples = 2\nvalue = [0, 2]"] ;
10 -> 11 ;
12 [label="X[1] <= 41.0\ngini = 0.5\nsamples = 4\nvalue = [2, 2]"] ;
10 -> 12 ;
13 [label="gini = 0.0\nsamples = 2\nvalue = [2, 0]"] ;
12 -> 13 ;
14 [label="gini = 0.0\nsamples = 2\nvalue = [0, 2]"] ;
12 -> 14 ;
15 [label="X[1] <= 12.5\ngini = 0.4959\nsamples = 11\nvalue = [6, 5]"] ;
7 -> 15 ;
16 [label="X[3] <= 5.5\ngini = 0.4082\nsamples = 7\nvalue = [2, 5]"] ;
15 -> 16 ;
17 [label="gini = 0.0\nsamples = 2\nvalue = [0, 2]"] ;
16 -> 17 ;
18 [label="X[3] <= 11.0\ngini = 0.48\nsamples = 5\nvalue = [2, 3]"] ;
16 -> 18 ;
19 [label="gini = 0.4444\nsamples = 3\nvalue = [1, 2]"] ;
18 -> 19 ;
20 [label="gini = 0.5\nsamples = 2\nvalue = [1, 1]"] ;
18 -> 20 ;
21 [label="gini = 0.0\nsamples = 4\nvalue = [4, 0]"] ;
15 -> 21 ;
22 [label="gini = 0.0\nsamples = 4\nvalue = [4, 0]"] ;
6 -> 22 ;
23 [label="gini = 0.0\nsamples = 1\nvalue = [0, 1]"] ;
5 -> 23 ;
24 [label="gini = 0.0\nsamples = 1\nvalue = [0, 1]"] ;
0 -> 24 [labeldistance=2.5, labelangle=-45, headlabel="False"] ;
}