digraph Tree {
node [shape=box] ;
0 [label="X[1] <= 38.5\ngini = 0.4839\nsamples = 39\nvalue = [16, 23]"] ;
1 [label="gini = 0.4688\nsamples = 8\nvalue = [5, 3]"] ;
0 -> 1 [labeldistance=2.5, labelangle=45, headlabel="True"] ;
2 [label="X[1] <= 41.5\ngini = 0.4579\nsamples = 31\nvalue = [11, 20]"] ;
0 -> 2 [labeldistance=2.5, labelangle=-45, headlabel="False"] ;
3 [label="gini = 0.0\nsamples = 5\nvalue = [0, 5]"] ;
2 -> 3 ;
4 [label="X[1] <= 59.0\ngini = 0.4882\nsamples = 26\nvalue = [11, 15]"] ;
2 -> 4 ;
5 [label="X[1] <= 45.0\ngini = 0.4959\nsamples = 11\nvalue = [6, 5]"] ;
4 -> 5 ;
6 [label="gini = 0.48\nsamples = 5\nvalue = [3, 2]"] ;
5 -> 6 ;
7 [label="gini = 0.5\nsamples = 6\nvalue = [3, 3]"] ;
5 -> 7 ;
8 [label="X[1] <= 67.5\ngini = 0.4444\nsamples = 15\nvalue = [5, 10]"] ;
4 -> 8 ;
9 [label="gini = 0.2778\nsamples = 6\nvalue = [1, 5]"] ;
8 -> 9 ;
10 [label="gini = 0.4938\nsamples = 9\nvalue = [4, 5]"] ;
8 -> 10 ;
}