digraph Tree {
node [shape=box] ;
0 [label="X[1] <= 67.5\nentropy = 1.0\nsamples = 39\nvalue = [19.5, 19.5]"] ;
1 [label="X[1] <= 42.5\nentropy = 0.9808\nsamples = 29\nvalue = [11.7, 16.25]"] ;
0 -> 1 [labeldistance=2.5, labelangle=45, headlabel="True"] ;
2 [label="X[0] <= 0.5\nentropy = 0.9977\nsamples = 17\nvalue = [9.1, 8.125]"] ;
1 -> 2 ;
3 [label="X[1] <= 38.5\nentropy = 0.9911\nsamples = 12\nvalue = [5.2, 6.5]"] ;
2 -> 3 ;
4 [label="entropy = 0.8631\nsamples = 5\nvalue = [1.3, 3.25]"] ;
3 -> 4 ;
5 [label="entropy = 0.994\nsamples = 7\nvalue = [3.9, 3.25]"] ;
3 -> 5 ;
6 [label="entropy = 0.874\nsamples = 5\nvalue = [3.9, 1.625]"] ;
2 -> 6 ;
7 [label="X[2] <= 1.5\nentropy = 0.799\nsamples = 12\nvalue = [2.6, 8.125]"] ;
1 -> 7 ;
8 [label="entropy = 0.9992\nsamples = 5\nvalue = [2.6, 2.4375]"] ;
7 -> 8 ;
9 [label="entropy = 0.0\nsamples = 7\nvalue = [0.0, 5.6875]"] ;
7 -> 9 ;
10 [label="entropy = 0.874\nsamples = 10\nvalue = [7.8, 3.25]"] ;
0 -> 10 [labeldistance=2.5, labelangle=-45, headlabel="False"] ;
}